<?xml version="1.0"?>
<opencv_storage>
<stage2>
  <maxWeakCount>6</maxWeakCount>
  <stageThreshold>4.3610784411430359e-01</stageThreshold>
  <weakClassifiers>
    <_>
      <internalNodes>
        0 -1 31895 3.2581180334091187e-02</internalNodes>
      <leafValues>
        5.5140185356140137e-01 -9.8882681131362915e-01</leafValues></_>
    <_>
      <internalNodes>
        0 -1 68325 4.8836851492524147e-03</internalNodes>
      <leafValues>
        -6.4589470624923706e-01 8.6455583572387695e-01</leafValues></_>
    <_>
      <internalNodes>
        0 -1 54129 1.8576489761471748e-02</internalNodes>
      <leafValues>
        -6.0674852132797241e-01 9.0976995229721069e-01</leafValues></_>
    <_>
      <internalNodes>
        0 -1 27751 -4.9216598272323608e-03</internalNodes>
      <leafValues>
        -9.4818609952926636e-01 4.8941805958747864e-01</leafValues></_>
    <_>
      <internalNodes>
        0 -1 111658 -3.6503929644823074e-02</internalNodes>
      <leafValues>
        -9.9259483814239502e-01 3.7361061573028564e-01</leafValues></_>
    <_>
      <internalNodes>
        0 -1 9856 -2.0110259356442839e-05</internalNodes>
      <leafValues>
        -1. 2.7432051301002502e-01</leafValues></_></weakClassifiers></stage2>
</opencv_storage>
