<?xml version="1.0"?>
<opencv_storage>
<stage0>
  <maxWeakCount>5</maxWeakCount>
  <stageThreshold>-1.4203076064586639e-01</stageThreshold>
  <weakClassifiers>
    <_>
      <internalNodes>
        0 -1 71481 3.9798910729587078e-03</internalNodes>
      <leafValues>
        -5.8564436435699463e-01 9.2764860391616821e-01</leafValues></_>
    <_>
      <internalNodes>
        0 -1 98819 4.0470976382493973e-03</internalNodes>
      <leafValues>
        -4.5643189549446106e-01 9.5861756801605225e-01</leafValues></_>
    <_>
      <internalNodes>
        0 -1 484 3.6149621009826660e-02</internalNodes>
      <leafValues>
        -9.9029731750488281e-01 5.6635475158691406e-01</leafValues></_>
    <_>
      <internalNodes>
        0 -1 84171 4.3891556560993195e-03</internalNodes>
      <leafValues>
        -5.3264766931533813e-01 9.3859982490539551e-01</leafValues></_>
    <_>
      <internalNodes>
        0 -1 79235 -1.3757579028606415e-02</internalNodes>
      <leafValues>
        9.8543322086334229e-01 -5.4871106147766113e-01</leafValues></_></weakClassifiers></stage0>
</opencv_storage>
